svm_type c_svc
kernel_type rbf
gamma 0.00048828125
nr_class 3
total_sv 27
rho -0.356760996495251 -0.087014464802667446 -0.20293071508826563
label 1 2 3
nr_sv 2 14 11
SV
1175.9843743376468 524.88486127758586 1:-0.555556 2:0.238095 3:-0.754386 4:-0.666667 
1578.1870809448578 343.80746801582262 1:-0.888889 2:-0.714286 3:-0.894737 4:-0.833333 
-0 2048 1:0.444444 2:0.047619 3:0.368421 4:0.166667 
-0 2048 1:0.111111 2:0.238095 3:0.298246 4:0.25 
-706.17145528250489 0 1:-0.666667 2:-0.619048 3:-0.192982 4:-0.25 
-0 2048 1:-0.277778 2:-0.047619 3:0.22807 4:0.166667 
-0 2048 1:0.0555556 2:-0.809524 3:0.22807 4:0.166667 
-0 2048 1:-0.111111 2:0.142857 3:0.333333 4:0.416667 
-0 2048 1:0.111111 2:-0.52381 3:0.368421 4:0.166667 
-0 2048 1:0.388889 2:-0.238095 3:0.333333 4:0.0833333 
-0 2048 1:0.333333 2:-0.047619 3:0.403509 4:0.333333 
-0 2048 1:-0.0555556 2:-0.142857 3:0.22807 4:0.166667 
-0 2048 1:-0.388889 2:-0.047619 3:0.22807 4:0.166667 
-0 1305.1078887155584 1:-0.0555556 2:0.333333 3:0.22807 4:0.25 
-0 244.50703046790917 1:0.333333 2:0.047619 3:0.298246 4:0.166667 
-2048 0 1:-0.555556 2:-0.52381 3:-0.298246 4:-0.166667 
-807.84104862102186 -2048 1:-0.666667 2:-0.52381 3:0.22807 4:0.333333 
-0 -2048 1:0.222222 2:0.142857 3:0.438596 4:0.583333 
-0 -2048 1:0.222222 2:-0.047619 3:0.578947 4:0.416667 
-0 -2048 1:0.111111 2:-0.333333 3:0.368421 4:0.416667 
-0 -1549.6149191834672 1:0.611111 2:0.142857 3:0.754386 4:0.416667 
-0 -2048 1:0.0555556 2:-0.238095 3:0.333333 4:0.416667 
-0 -2048 1:-2.22045e-16 2:-0.047619 3:0.368421 4:0.416667 
-60.851280672386636 -2048 1:0.111111 2:-0.238095 3:0.438596 4:0.166667 
-0 -2048 1:-2.22045e-16 2:-0.428571 3:0.614035 4:0.0833333 
-0 -2048 1:-0.0555556 2:-0.047619 3:0.333333 4:0.416667 
-0 -2048 1:-0.111111 2:-0.047619 3:0.438596 4:0.416667 
