svm_type c_svc
kernel_type rbf
gamma 0.0078125
nr_class 4
total_sv 114
rho 1 1 -1 -1 -1 -1
label 4 5 6 7
nr_sv 18 43 43 10
SV
0.03125 0.03125 0 
0.03125 0.03125 0 
0.03125 0.03125 0 
0.03125 0.03125 0 
0.03125 0.03125 0 
0.03125 0.03125 0 
0.03125 0.03125 0 
0.03125 0.03125 0 
0.03125 0.03125 0.03125 
0.03125 0.03125 0.03125 
0.03125 0.03125 0.03125 
0.03125 0.03125 0.03125 
0.03125 0.03125 0.03125 
0.03125 0.03125 0.03125 
0.03125 0.03125 0.03125 
0.03125 0.03125 0.03125 
0.03125 0.03125 0.03125 
0.03125 0.03125 0.03125 
-0 0.03125 0 
-0 0.03125 0 
-0 0.03125 0 
-0 0.03125 0 
-0 0.03125 0 
-0 0.03125 0 
-0 0.03125 0 
-0 0.03125 0 
-0 0.03125 0 
-0 0.03125 0 
-0 0.03125 0 
-0 0.03125 0 
-0 0.03125 0 
-0 0.03125 0 
-0 0.03125 0 
-0 0.03125 0 
-0 0.03125 0 
-0 0.03125 0 
-0 0.03125 0 
-0 0.03125 0 
-0 0.03125 0 
-0 0.03125 0 
-0 0.03125 0 
-0 0.03125 0 
-0 0.03125 0 
-0.03125 0.03125 0 
-0.03125 0.03125 0 
-0.03125 0.03125 0 
-0.03125 0.03125 0 
-0.03125 0.03125 0 
-0.03125 0.03125 0 
-0.03125 0.03125 0 
-0.03125 0.03125 0 
-0.03125 0.03125 0.03125 
-0.03125 0.03125 0.03125 
-0.03125 0.03125 0.03125 
-0.03125 0.03125 0.03125 
-0.03125 0.03125 0.03125 
-0.03125 0.03125 0.03125 
-0.03125 0.03125 0.03125 
-0.03125 0.03125 0.03125 
-0.03125 0.03125 0.03125 
-0.03125 0.03125 0.03125 
-0 -0.03125 0 
-0 -0.03125 0 
-0 -0.03125 0 
-0 -0.03125 0 
-0 -0.03125 0 
-0 -0.03125 0 
-0 -0.03125 0 
-0 -0.03125 0 
-0 -0.03125 0 
-0 -0.03125 0 
-0 -0.03125 0 
-0 -0.03125 0 
-0 -0.03125 0 
-0 -0.03125 0 
-0 -0.03125 0 
-0 -0.03125 0 
-0 -0.03125 0 
-0 -0.03125 0 
-0 -0.03125 0 
-0 -0.03125 0 
-0 -0.03125 0 
-0 -0.03125 0 
-0 -0.03125 0 
-0 -0.03125 0 
-0 -0.03125 0 
-0.03125 -0.03125 0 
-0.03125 -0.03125 0 
-0.03125 -0.03125 0 
-0.03125 -0.03125 0 
-0.03125 -0.03125 0 
-0.03125 -0.03125 0 
-0.03125 -0.03125 0 
-0.03125 -0.03125 0 
-0.03125 -0.03125 0.03125 
-0.03125 -0.03125 0.03125 
-0.03125 -0.03125 0.03125 
-0.03125 -0.03125 0.03125 
-0.03125 -0.03125 0.03125 
-0.03125 -0.03125 0.03125 
-0.03125 -0.03125 0.03125 
-0.03125 -0.03125 0.03125 
-0.03125 -0.03125 0.03125 
-0.03125 -0.03125 0.03125 
-0.03125 -0.03125 -0.03125 
-0.03125 -0.03125 -0.03125 
-0.03125 -0.03125 -0.03125 
-0.03125 -0.03125 -0.03125 
-0.03125 -0.03125 -0.03125 
-0.03125 -0.03125 -0.03125 
-0.03125 -0.03125 -0.03125 
-0.03125 -0.03125 -0.03125 
-0.03125 -0.03125 -0.03125 
-0.03125 -0.03125 -0.03125 
